SVM-light Version V6.02
0 # kernel type
3 # kernel parameter -d 
1 # kernel parameter -g 
1 # kernel parameter -s 
1 # kernel parameter -r 
empty# kernel parameter -u 
30 # highest feature index 
507 # number of training documents 
75 # number of support vectors plus 1 
-7.0741909 # threshold b, each following line is a SV (starting with alpha*y)
0.095098274709016550332307815551758 1:13.62 2:23.23 3:87.190002 4:573.20001 5:0.092459999 6:0.067469999 7:0.02974 8:0.024429999 9:0.1664 10:0.058010001 11:0.34599999 12:1.336 13:2.066 14:31.24 15:0.00587 16:0.020989999 17:0.02021 18:0.0090600001 19:0.02087 20:0.0025800001 21:15.35 22:29.09 23:97.580002 24:729.79999 25:0.1216 26:0.1517 27:0.1049 28:0.071740001 29:0.2642 30:0.069530003 #
-0.10000000000000000555111512312578 1:16.24 2:18.77 3:108.8 4:805.09998 5:0.1066 6:0.1802 7:0.1948 8:0.090520002 9:0.1876 10:0.06684 11:0.28729999 12:0.91729999 13:2.464 14:28.09 15:0.0045599998 16:0.034809999 17:0.038720001 18:0.01209 19:0.01388 20:0.0040799999 21:18.549999 22:25.09 23:126.9 24:1031 25:0.1365 26:0.47060001 27:0.50260001 28:0.1732 29:0.27700001 30:0.1063 #
0.037315968561870249686762690544128 1:12.25 2:22.440001 3:78.18 4:466.5 5:0.081919998 6:0.052000001 7:0.017139999 8:0.01261 9:0.15440001 10:0.059760001 11:0.22390001 12:1.1390001 13:1.577 14:18.040001 15:0.0051000002 16:0.01205 17:0.0094100004 18:0.0045500002 19:0.01608 20:0.0024000001 21:14.17 22:31.99 23:92.739998 24:622.90002 25:0.1256 26:0.1804 27:0.123 28:0.063349999 29:0.31 30:0.082029998 #
0.10000000000000000555111512312578 1:16.84 2:19.459999 3:108.4 4:880.20001 5:0.074450001 6:0.072229996 7:0.0515 8:0.02771 9:0.18440001 10:0.052680001 11:0.47889999 12:2.0599999 13:3.4790001 14:46.610001 15:0.0034399999 16:0.02661 17:0.03056 18:0.0111 19:0.0152 20:0.00152 21:18.219999 22:28.07 23:120.3 24:1032 25:0.087739997 26:0.171 27:0.1882 28:0.084360003 29:0.2527 30:0.059719998 #
-0.10000000000000000555111512312578 1:13.8 2:15.79 3:90.43 4:584.09998 5:0.1007 6:0.12800001 7:0.077890001 8:0.050689999 9:0.1662 10:0.06566 11:0.27869999 12:0.62050003 13:1.957 14:23.35 15:0.0047200001 16:0.020649999 17:0.017589999 18:0.0092099998 19:0.0122 20:0.0031300001 21:16.57 22:20.860001 23:110.3 24:812.40002 25:0.1411 26:0.35420001 27:0.27790001 28:0.1383 29:0.25889999 30:0.103 #
-0.10000000000000000555111512312578 1:11.8 2:16.58 3:78.989998 4:432 5:0.1091 6:0.17 7:0.16590001 8:0.074150003 9:0.2678 10:0.073710002 11:0.3197 12:1.426 13:2.2809999 14:24.719999 15:0.0054299999 16:0.03633 17:0.046489999 18:0.01843 19:0.056279998 20:0.0046399999 21:13.74 22:26.379999 23:91.93 24:591.70001 25:0.13850001 26:0.40920001 27:0.45039999 28:0.1865 29:0.57740003 30:0.103 #
-0.092309396046580616257415385916829 1:21.559999 2:22.389999 3:142 4:1479 5:0.111 6:0.1159 7:0.2439 8:0.1389 9:0.1726 10:0.056230001 11:1.176 12:1.256 13:7.6729999 14:158.7 15:0.0103 16:0.02891 #
0.10000000000000000555111512312578 1:13.27 2:14.76 3:84.739998 4:551.70001 5:0.073550001 6:0.050549999 7:0.032609999 8:0.02648 9:0.13860001 10:0.053180002 11:0.4057 12:1.153 13:2.701 14:36.349998 15:0.0044800001 16:0.01038 17:0.01358 18:0.01082 19:0.01069 20:0.00144 21:16.360001 22:22.35 23:104.5 24:830.59998 25:0.1006 26:0.1238 27:0.13500001 28:0.1001 29:0.2027 30:0.062059999 #
0.10000000000000000555111512312578 1:14.41 2:19.73 3:96.029999 4:651 5:0.087569997 6:0.16760001 7:0.1362 8:0.066019997 9:0.1714 10:0.07192 11:0.8811 12:1.77 13:4.3600001 14:77.110001 15:0.0077599999 16:0.1064 17:0.099600002 18:0.02771 19:0.040770002 20:0.02286 21:15.77 22:22.129999 23:101.7 24:767.29999 25:0.099830002 26:0.2472 27:0.222 28:0.1021 29:0.2272 30:0.087990001 #
-0.10000000000000000555111512312578 1:11.08 2:18.83 3:73.300003 4:361.60001 5:0.1216 6:0.2154 7:0.1689 8:0.063670002 9:0.21960001 10:0.079499997 11:0.2114 12:1.027 13:1.719 14:13.99 15:0.0074100001 16:0.04549 17:0.045880001 18:0.01339 19:0.017379999 20:0.0044300002 21:13.24 22:32.82 23:91.760002 24:508.10001 25:0.2184 26:0.93790001 27:0.84020001 28:0.25240001 29:0.4154 30:0.14030001 #
0.10000000000000000555111512312578 1:14.26 2:19.65 3:97.830002 4:629.90002 5:0.078369997 6:0.2233 7:0.3003 8:0.077979997 9:0.17039999 10:0.077689998 11:0.3628 12:1.49 13:3.3989999 14:29.25 15:0.0052999998 16:0.07446 17:0.1435 18:0.022919999 19:0.025660001 20:0.01298 21:15.3 22:23.73 23:107 24:709 25:0.089489996 26:0.41929999 27:0.67830002 28:0.1505 29:0.23980001 30:0.1082 #
0.10000000000000000555111512312578 1:11.36 2:17.57 3:72.489998 4:399.79999 5:0.088579997 6:0.053130001 7:0.027829999 8:0.021 9:0.1601 10:0.059130002 11:0.19159999 12:1.5549999 13:1.359 14:13.66 15:0.0053900001 16:0.0099499999 17:0.01163 18:0.00587 19:0.01341 20:0.00166 21:13.05 22:36.32 23:85.07 24:521.29999 25:0.1453 26:0.1622 27:0.1811 28:0.08698 29:0.29730001 30:0.07745 #
-0.10000000000000000555111512312578 1:15.12 2:16.68 3:98.779999 4:716.59998 5:0.088760003 6:0.095880002 7:0.075499997 8:0.040789999 9:0.1594 10:0.059859999 11:0.27110001 12:0.36210001 13:1.974 14:26.440001 15:0.0054700002 16:0.01919 17:0.02039 18:0.0082599996 19:0.01523 20:0.00288 21:17.77 22:20.24 23:117.7 24:989.5 25:0.14910001 26:0.33309999 27:0.33270001 28:0.1252 29:0.34150001 30:0.097400002 #
-0.10000000000000000555111512312578 1:14.19 2:23.809999 3:92.870003 4:610.70001 5:0.094630003 6:0.13060001 7:0.1115 8:0.064620003 9:0.2235 10:0.064329997 11:0.42070001 12:1.845 13:3.5339999 14:31 15:0.01088 16:0.037099998 17:0.036880001 18:0.01627 19:0.044989999 20:0.00477 21:16.860001 22:34.849998 23:115 24:811.29999 25:0.1559 26:0.4059 27:0.37439999 28:0.1772 29:0.47240001 30:0.1026 #
-0.10000000000000000555111512312578 1:11.42 2:20.379999 3:77.580002 4:386.10001 5:0.1425 6:0.28389999 7:0.2414 8:0.1052 9:0.2597 10:0.097439997 11:0.49559999 12:1.156 13:3.4449999 14:27.23 15:0.00911 16:0.074579999 17:0.056609999 18:0.01867 19:0.059629999 20:0.0092099998 21:14.91 22:26.5 23:98.870003 24:567.70001 25:0.2098 26:0.86629999 27:0.68690002 28:0.25749999 29:0.6638 30:0.17299999 #
-0.10000000000000000555111512312578 1:12.45 2:15.7 3:82.57 4:477.10001 5:0.1278 6:0.17 7:0.1578 8:0.08089 9:0.2087 10:0.076130003 11:0.33450001 12:0.89020002 13:2.217 14:27.190001 15:0.0075099999 16:0.03345 17:0.03672 18:0.01137 19:0.02165 20:0.00508 21:15.47 22:23.75 23:103.4 24:741.59998 25:0.17910001 26:0.52490002 27:0.53549999 28:0.1741 29:0.3985 30:0.1244 #
-0.10000000000000000555111512312578 1:11.76 2:18.139999 3:75 4:431.10001 5:0.099679999 6:0.05914 7:0.02685 8:0.035149999 9:0.1619 10:0.062870003 11:0.64499998 12:2.105 13:4.138 14:49.110001 15:0.0055999998 16:0.01005 17:0.01272 18:0.01432 19:0.01575 20:0.0027600001 21:13.36 22:23.389999 23:85.099998 24:553.59998 25:0.1137 26:0.079740003 27:0.0612 28:0.071599998 29:0.1978 30:0.069150001 #
0.10000000000000000555111512312578 1:14.69 2:13.98 3:98.220001 4:656.09998 5:0.1031 6:0.18359999 7:0.145 8:0.063000001 9:0.2086 10:0.07406 11:0.54619998 12:1.511 13:4.7950001 14:49.450001 15:0.0099799996 16:0.052439999 17:0.052779999 18:0.015799999 19:0.026529999 20:0.00544 21:16.459999 22:18.34 23:114.1 24:809.20001 25:0.1312 26:0.3635 27:0.32190001 28:0.1108 29:0.2827 30:0.092079997 #
0.10000000000000000555111512312578 1:13.85 2:19.6 3:88.68 4:592.59998 5:0.086839996 6:0.063299999 7:0.01342 8:0.02293 9:0.15549999 10:0.056729998 11:0.34189999 12:1.678 13:2.3310001 14:29.629999 15:0.0058400002 16:0.01095 17:0.00581 18:0.0070400001 19:0.02014 20:0.00233 21:15.63 22:28.01 23:100.9 24:749.09998 25:0.1118 26:0.1141 27:0.047529999 28:0.058899999 29:0.25130001 30:0.069109999 #
0.10000000000000000555111512312578 1:14.62 2:24.02 3:94.57 4:662.70001 5:0.089740001 6:0.086060002 7:0.031020001 8:0.02957 9:0.16850001 10:0.058660001 11:0.3721 12:1.1109999 13:2.279 14:33.759998 15:0.0048699998 16:0.01818 17:0.01121 18:0.0086099999 19:0.020850001 20:0.0028899999 21:16.110001 22:29.110001 23:102.9 24:803.70001 25:0.1115 26:0.17659999 27:0.09189 28:0.069459997 29:0.25220001 30:0.072460003 #
0.10000000000000000555111512312578 1:14.05 2:27.15 3:91.379997 4:600.40002 5:0.099289998 6:0.1126 7:0.04462 8:0.04304 9:0.15369999 10:0.06171 11:0.36449999 12:1.492 13:2.888 14:29.84 15:0.0072599999 16:0.02678 17:0.020710001 18:0.01626 19:0.0208 20:0.0052999998 21:15.3 22:33.169998 23:100.2 24:706.70001 25:0.1241 26:0.2264 27:0.13259999 28:0.1048 29:0.22499999 30:0.083209999 #
-0.10000000000000000555111512312578 1:13.44 2:21.58 3:86.18 4:563 5:0.08162 6:0.060309999 7:0.031099999 8:0.02031 9:0.17839999 10:0.05587 11:0.2385 12:0.8265 13:1.572 14:20.530001 15:0.0032800001 16:0.01102 17:0.0139 18:0.0068799998 19:0.0138 20:0.00129 21:15.93 22:30.25 23:102.5 24:787.90002 25:0.1094 26:0.2043 27:0.2085 28:0.1112 29:0.2994 30:0.071460001 #
0.10000000000000000555111512312578 1:14.34 2:13.47 3:92.510002 4:641.20001 5:0.099059999 6:0.076240003 7:0.057240002 8:0.04603 9:0.2075 10:0.054480001 11:0.52200001 12:0.81209999 13:3.763 14:48.290001 15:0.00709 16:0.01428 17:0.023600001 18:0.01286 19:0.02266 20:0.0014600001 21:16.77 22:16.9 23:110.4 24:873.20001 25:0.12970001 26:0.1525 27:0.16320001 28:0.1087 29:0.3062 30:0.06072 #
-0.10000000000000000555111512312578 1:13.17 2:18.66 3:85.980003 4:534.59998 5:0.1158 6:0.1231 7:0.1226 8:0.073399998 9:0.2128 10:0.067769997 11:0.28709999 12:0.8937 13:1.897 14:24.25 15:0.0065299999 16:0.023360001 17:0.02905 18:0.01215 19:0.01743 20:0.00364 21:15.67 22:27.950001 23:102.8 24:759.40002 25:0.1786 26:0.41659999 27:0.50059998 28:0.2088 29:0.38999999 30:0.1179 #
0.10000000000000000555111512312578 1:14.64 2:16.85 3:94.209999 4:666 5:0.086410001 6:0.066979997 7:0.05192 8:0.02791 9:0.1409 10:0.053550001 11:0.22040001 12:1.006 13:1.471 14:19.98 15:0.0035300001 16:0.01393 17:0.017999999 18:0.0061400002 19:0.01254 20:0.00122 21:16.459999 22:25.440001 23:106 24:831 25:0.1142 26:0.207 27:0.2437 28:0.078280002 29:0.2455 30:0.065959997 #
-0.10000000000000000555111512312578 1:13.48 2:20.82 3:88.400002 4:559.20001 5:0.1016 6:0.12549999 7:0.1063 8:0.054389998 9:0.17200001 10:0.06419 11:0.213 12:0.59140003 13:1.545 14:18.52 15:0.0053699999 16:0.022390001 17:0.03049 18:0.01262 19:0.01377 20:0.0031900001 21:15.53 22:26.02 23:107.3 24:740.40002 25:0.161 26:0.42250001 27:0.50300002 28:0.22579999 29:0.2807 30:0.1071 #
0.10000000000000000555111512312578 1:12.88 2:18.219999 3:84.449997 4:493.10001 5:0.1218 6:0.1661 7:0.048250001 8:0.053029999 9:0.1709 10:0.072530001 11:0.44260001 12:1.169 13:3.1760001 14:34.369999 15:0.0052700001 16:0.023290001 17:0.01405 18:0.01244 19:0.01816 20:0.0033 21:15.05 22:24.370001 23:99.309998 24:674.70001 25:0.14560001 26:0.29609999 27:0.1246 28:0.1096 29:0.25819999 30:0.088930003 #
-0.10000000000000000555111512312578 1:13.96 2:17.049999 3:91.43 4:602.40002 5:0.1096 6:0.1279 7:0.097889997 8:0.05246 9:0.1908 10:0.061299998 11:0.42500001 12:0.80980003 13:2.563 14:35.740002 15:0.0063499999 16:0.02679 17:0.03119 18:0.01342 19:0.02062 20:0.00269 21:16.389999 22:22.07 23:108.1 24:826 25:0.1512 26:0.32620001 27:0.32089999 28:0.1374 29:0.30680001 30:0.079570003 #
-0.10000000000000000555111512312578 1:13.86 2:16.93 3:90.959999 4:578.90002 5:0.1026 6:0.1517 7:0.099009998 8:0.056019999 9:0.2106 10:0.069159999 11:0.2563 12:1.194 13:1.933 14:22.690001 15:0.0059600002 16:0.03438 17:0.03909 18:0.01435 19:0.01939 20:0.0045599998 21:15.75 22:26.93 23:104.4 24:750.09998 25:0.146 26:0.43700001 27:0.46360001 28:0.1654 29:0.36300001 30:0.1059 #
-0.10000000000000000555111512312578 1:12.77 2:22.469999 3:81.720001 4:506.29999 5:0.090549998 6:0.057610001 7:0.047109999 8:0.027039999 9:0.1585 10:0.060649998 11:0.2367 12:1.38 13:1.457 14:19.870001 15:0.0074999998 16:0.01202 17:0.023320001 18:0.0089199999 19:0.01647 20:0.00263 21:14.49 22:33.369999 23:92.040001 24:653.59998 25:0.1419 26:0.1523 27:0.2177 28:0.093309999 29:0.28290001 30:0.080669999 #
-0.10000000000000000555111512312578 1:13.28 2:20.280001 3:87.32 4:545.20001 5:0.1041 6:0.1436 7:0.098470002 8:0.061579999 9:0.1974 10:0.067819998 11:0.37040001 12:0.82489997 13:2.427 14:31.33 15:0.00507 16:0.021469999 17:0.021849999 18:0.0095600002 19:0.01719 20:0.0033199999 21:17.379999 22:28 23:113.1 24:907.20001 25:0.153 26:0.37239999 27:0.3664 28:0.14920001 29:0.3739 30:0.1027 #
0.062899677001951204147189855575562 1:14.03 2:21.25 3:89.790001 4:603.40002 5:0.090700001 6:0.069449998 7:0.01462 8:0.018959999 9:0.1517 10:0.058350001 11:0.25889999 12:1.503 13:1.6670001 14:22.07 15:0.0073899999 16:0.01383 17:0.0073000002 18:0.01004 19:0.01263 20:0.00293 21:15.33 22:30.280001 23:98.269997 24:715.5 25:0.1287 26:0.1513 27:0.062309999 28:0.079630002 29:0.2226 30:0.076169997 #
-0.10000000000000000555111512312578 1:10.95 2:21.35 3:71.900002 4:371.10001 5:0.1227 6:0.1218 7:0.1044 8:0.05669 9:0.1895 10:0.068700001 11:0.2366 12:1.428 13:1.822 14:16.969999 15:0.0080599999 16:0.01764 17:0.02595 18:0.01037 19:0.01357 20:0.0030400001 21:12.84 22:35.34 23:87.220001 24:514 25:0.1909 26:0.26980001 27:0.4023 28:0.1424 29:0.29640001 30:0.09606 #
-0.10000000000000000555111512312578 1:14.42 2:19.77 3:94.480003 4:642.5 5:0.097520001 6:0.1141 7:0.093879998 8:0.058389999 9:0.18790001 10:0.063900001 11:0.2895 12:1.851 13:2.3759999 14:26.85 15:0.0080000004 16:0.02895 17:0.033209998 18:0.01424 19:0.01462 20:0.0044499999 21:16.33 22:30.860001 23:109.5 24:826.40002 25:0.14309999 26:0.3026 27:0.31940001 28:0.1565 29:0.27180001 30:0.093529999 #
0.077139635154935604077763855457306 1:16.139999 2:14.86 3:104.3 4:800 5:0.094949998 6:0.08501 7:0.055 8:0.045279998 9:0.1735 10:0.05875 11:0.2387 12:0.6372 13:1.729 14:21.83 15:0.0039599999 16:0.01246 17:0.018309999 18:0.00875 19:0.015 20:0.00162 21:17.709999 22:19.58 23:115.9 24:947.90002 25:0.1206 26:0.17219999 27:0.23100001 28:0.1129 29:0.27779999 30:0.070119999 #
0.10000000000000000555111512312578 1:13.38 2:30.719999 3:86.339996 4:557.20001 5:0.09245 6:0.074259996 7:0.02819 8:0.032639999 9:0.1375 10:0.06016 11:0.34079999 12:1.924 13:2.2869999 14:28.93 15:0.0058400002 16:0.01246 17:0.0079399999 18:0.0091300001 19:0.01564 20:0.0029800001 21:15.05 22:41.610001 23:96.690002 24:705.59998 25:0.1172 26:0.14210001 27:0.070029996 28:0.077629998 29:0.21960001 30:0.076750003 #
-0.10000000000000000555111512312578 1:13.98 2:19.620001 3:91.120003 4:599.5 5:0.106 6:0.1133 7:0.1126 8:0.064630002 9:0.16689999 10:0.065439999 11:0.2208 12:0.9533 13:1.602 14:18.85 15:0.0053099999 16:0.01791 17:0.021849999 18:0.0095699998 19:0.01223 20:0.00285 21:17.040001 22:30.799999 23:113.9 24:869.29999 25:0.1613 26:0.35679999 27:0.40689999 28:0.18269999 29:0.3179 30:0.1055 #
-0.10000000000000000555111512312578 1:15.05 2:19.07 3:97.260002 4:701.90002 5:0.092150003 6:0.085969999 7:0.074859999 8:0.04335 9:0.1561 10:0.059149999 11:0.38600001 12:1.198 13:2.6300001 14:38.490002 15:0.00495 16:0.0163 17:0.02967 18:0.00942 19:0.01152 20:0.0017199999 21:17.58 22:28.059999 23:113.8 24:967 25:0.1246 26:0.2101 27:0.28659999 28:0.112 29:0.2282 30:0.069540001 #
0.10000000000000000555111512312578 1:13.9 2:19.24 3:88.730003 4:602.90002 5:0.079910003 6:0.053259999 7:0.02995 8:0.0207 9:0.15790001 10:0.055939998 11:0.33160001 12:0.92640001 13:2.056 14:28.41 15:0.0037 16:0.01082 17:0.0153 18:0.0062799999 19:0.01062 20:0.0022199999 21:16.41 22:26.42 23:104.4 24:830.5 25:0.1064 26:0.1415 27:0.1673 28:0.081500001 29:0.23559999 30:0.076030001 #
0.10000000000000000555111512312578 1:14.95 2:18.77 3:97.839996 4:689.5 5:0.081380002 6:0.1167 7:0.090499997 8:0.03562 9:0.1744 10:0.064929999 11:0.42199999 12:1.909 13:3.2709999 14:39.43 15:0.0057899999 16:0.048769999 17:0.053029999 18:0.01527 19:0.03356 20:0.0093700001 21:16.25 22:25.469999 23:107.1 24:809.70001 25:0.099699996 26:0.25209999 27:0.25 28:0.08405 29:0.2852 30:0.092179999 #
0.10000000000000000555111512312578 1:14.47 2:24.99 3:95.809998 4:656.40002 5:0.088370003 6:0.123 7:0.1009 8:0.038899999 9:0.18719999 10:0.063409999 11:0.25420001 12:1.079 13:2.615 14:23.110001 15:0.0071399999 16:0.046530001 17:0.038290001 18:0.01162 19:0.020679999 20:0.00611 21:16.219999 22:31.73 23:113.5 24:808.90002 25:0.134 26:0.42019999 27:0.40400001 28:0.1205 29:0.31869999 30:0.1023 #
0.10000000000000000555111512312578 1:14.42 2:16.540001 3:94.150002 4:641.20001 5:0.097510003 6:0.1139 7:0.080069996 8:0.042229999 9:0.1912 10:0.064120002 11:0.34909999 12:0.77060002 13:2.677 14:32.139999 15:0.0045799999 16:0.03053 17:0.038400002 18:0.01243 19:0.01873 20:0.00337 21:16.67 22:21.51 23:111.4 24:862.09998 25:0.1294 26:0.3371 27:0.37549999 28:0.14139999 29:0.3053 30:0.087640002 #
0.10000000000000000555111512312578 1:14.99 2:22.110001 3:97.529999 4:693.70001 5:0.085150003 6:0.1025 7:0.06859 8:0.038759999 9:0.1944 10:0.059130002 11:0.3186 12:1.336 13:2.3099999 14:28.51 15:0.0044499999 16:0.02808 17:0.033119999 18:0.01196 19:0.019060001 20:0.0040199999 21:16.76 22:31.549999 23:110.2 24:867.09998 25:0.1077 26:0.33450001 27:0.3114 28:0.13079999 29:0.3163 30:0.09251 #
-0.10000000000000000555111512312578 1:15.85 2:23.950001 3:103.7 4:782.70001 5:0.084009998 6:0.1002 7:0.099380001 8:0.053640001 9:0.1847 10:0.053380001 11:0.40329999 12:1.0779999 13:2.9030001 14:36.580002 15:0.0097700004 16:0.031259999 17:0.05051 18:0.019920001 19:0.02981 20:0.003 21:16.84 22:27.66 23:112 24:876.5 25:0.1131 26:0.19239999 27:0.2322 28:0.1119 29:0.2809 30:0.062870003 #
-0.10000000000000000555111512312578 1:16.030001 2:15.51 3:105.8 4:793.20001 5:0.094910003 6:0.1371 7:0.1204 8:0.070409998 9:0.17820001 10:0.059760001 11:0.3371 12:0.74760002 13:2.6289999 14:33.27 15:0.0058400002 16:0.032450002 17:0.037149999 18:0.01459 19:0.01467 20:0.00312 21:18.76 22:21.98 23:124.3 24:1070 25:0.1435 26:0.44780001 27:0.49559999 28:0.1981 29:0.3019 30:0.091240004 #
0.10000000000000000555111512312578 1:16.5 2:18.290001 3:106.6 4:838.09998 5:0.096859999 6:0.084679998 7:0.058619998 8:0.048349999 9:0.1495 10:0.05593 11:0.3389 12:1.439 13:2.3440001 14:33.580002 15:0.0072599999 16:0.01805 17:0.01832 18:0.01033 19:0.01694 20:0.0020000001 21:18.129999 22:25.450001 23:117.2 24:1009 25:0.1338 26:0.1679 27:0.1663 28:0.091229998 29:0.2394 30:0.064690001 #
0.10000000000000000555111512312578 1:15.04 2:16.74 3:98.730003 4:689.40002 5:0.09883 6:0.1364 7:0.077210002 8:0.061420001 9:0.16680001 10:0.068690002 11:0.37200001 12:0.8423 13:2.3039999 14:34.84 15:0.0041200002 16:0.01819 17:0.019959999 18:0.01004 19:0.01055 20:0.00324 21:16.76 22:20.43 23:109.7 24:856.90002 25:0.1135 26:0.2176 27:0.1856 28:0.1018 29:0.2177 30:0.085490003 #
-0.10000000000000000555111512312578 1:13.61 2:24.690001 3:87.760002 4:572.59998 5:0.092579998 6:0.078620002 7:0.052850001 8:0.030850001 9:0.1761 10:0.061299998 11:0.23100001 12:1.005 13:1.752 14:19.83 15:0.0040899999 16:0.01174 17:0.017960001 18:0.0068799998 19:0.01323 20:0.0014600001 21:16.889999 22:35.639999 23:113.2 24:848.70001 25:0.1471 26:0.28839999 27:0.37959999 28:0.1329 29:0.347 30:0.079000004 #
-0.10000000000000000555111512312578 1:14.86 2:23.209999 3:100.4 4:671.40002 5:0.1044 6:0.198 7:0.1697 8:0.088780001 9:0.1737 10:0.066720001 11:0.27959999 12:0.96219999 13:3.5910001 14:25.200001 15:0.0080800001 16:0.05122 17:0.055509999 18:0.018829999 19:0.025450001 20:0.0043100002 21:16.08 22:27.780001 23:118.6 24:784.70001 25:0.13160001 26:0.4648 27:0.4589 28:0.1727 29:0.30000001 30:0.087010004 #
-0.10000000000000000555111512312578 1:14.25 2:21.719999 3:93.629997 4:633 5:0.098229997 6:0.1098 7:0.1319 8:0.055980001 9:0.1885 10:0.061250001 11:0.28600001 12:1.0190001 13:2.6570001 14:24.91 15:0.0058800001 16:0.02995 17:0.048149999 18:0.01161 19:0.02028 20:0.0040199999 21:15.89 22:30.360001 23:116.2 24:799.59998 25:0.1446 26:0.42379999 27:0.51859999 28:0.14470001 29:0.35910001 30:0.1014 #
-0.10000000000000000555111512312578 1:14.6 2:23.290001 3:93.970001 4:664.70001 5:0.086819999 6:0.066359997 7:0.083899997 8:0.05271 9:0.1627 10:0.054159999 11:0.41569999 12:1.627 13:2.914 14:33.009998 15:0.0083100004 16:0.017419999 17:0.033890001 18:0.015760001 19:0.0174 20:0.00287 21:15.79 22:31.709999 23:102.2 24:758.20001 25:0.1312 26:0.15809999 27:0.26750001 28:0.13590001 29:0.24770001 30:0.068360001 #
0.10000000000000000555111512312578 1:14.26 2:18.17 3:91.220001 4:633.09998 5:0.065760002 6:0.052200001 7:0.02475 8:0.01374 9:0.1635 10:0.055860002 11:0.23 12:0.66900003 13:1.661 14:20.559999 15:0.0031699999 16:0.01377 17:0.01079 18:0.0052399999 19:0.01103 20:0.00196 21:16.219999 22:25.26 23:105.8 24:819.70001 25:0.094449997 26:0.2167 27:0.1565 28:0.075300001 29:0.26359999 30:0.076760001 #
-0.10000000000000000555111512312578 1:13.17 2:21.809999 3:85.419998 4:531.5 5:0.097139999 6:0.1047 7:0.082589999 8:0.052519999 9:0.17460001 10:0.06177 11:0.1938 12:0.61229998 13:1.334 14:14.49 15:0.0033499999 16:0.01384 17:0.01452 18:0.00685 19:0.01113 20:0.0017199999 21:16.23 22:29.889999 23:105.5 24:740.70001 25:0.1503 26:0.39039999 27:0.37279999 28:0.16069999 29:0.36930001 30:0.096179999 #
0.10000000000000000555111512312578 1:13.24 2:20.129999 3:86.870003 4:542.90002 5:0.082840003 6:0.1223 7:0.101 8:0.02833 9:0.1601 10:0.064319998 11:0.28099999 12:0.81349999 13:3.369 14:23.809999 15:0.0049299998 16:0.066569999 17:0.07683 18:0.01368 19:0.01526 20:0.00813 21:15.44 22:25.5 23:115 24:733.5 25:0.1201 26:0.56459999 27:0.65560001 28:0.1357 29:0.2845 30:0.1249 #
0.10000000000000000555111512312578 1:14.22 2:27.85 3:92.550003 4:623.90002 5:0.082230002 6:0.1039 7:0.1103 8:0.04408 9:0.13420001 10:0.06129 11:0.33539999 12:2.3239999 13:2.105 14:29.959999 15:0.0063100001 16:0.028449999 17:0.0385 18:0.01011 19:0.01185 20:0.0035900001 21:15.75 22:40.540001 23:102.5 24:764 25:0.1081 26:0.24259999 27:0.3064 28:0.08219 29:0.189 30:0.077959999 #
0.07772974506588070653378963470459 1:13.46 2:28.209999 3:85.889999 4:562.09998 5:0.075170003 6:0.047260001 7:0.01271 8:0.01117 9:0.14210001 10:0.057629999 11:0.1689 12:1.15 13:1.4 14:14.91 15:0.0049399999 16:0.01203 17:0.0075099999 18:0.0051799999 19:0.01442 20:0.00168 21:14.69 22:35.630001 23:97.110001 24:680.59998 25:0.1108 26:0.14569999 27:0.079340003 28:0.057810001 29:0.2694 30:0.070610002 #
-0.10000000000000000555111512312578 1:14.48 2:21.459999 3:94.25 4:648.20001 5:0.094439998 6:0.099469997 7:0.1204 8:0.049380001 9:0.2075 10:0.056359999 11:0.42039999 12:2.22 13:3.3010001 14:38.869999 15:0.0093700001 16:0.029829999 17:0.053709999 18:0.01761 19:0.024180001 20:0.0032500001 21:16.209999 22:29.25 23:108.4 24:808.90002 25:0.13060001 26:0.19760001 27:0.33489999 28:0.1225 29:0.30199999 30:0.068460003 #
-0.10000000000000000555111512312578 1:16.690001 2:20.200001 3:107.1 4:857.59998 5:0.074969999 6:0.071120001 7:0.036490001 8:0.02307 9:0.1846 10:0.05325 11:0.2473 12:0.5679 13:1.775 14:22.950001 15:0.0026700001 16:0.01446 17:0.01423 18:0.0052999998 19:0.019610001 20:0.0017 21:19.18 22:26.559999 23:127.3 24:1084 25:0.1009 26:0.292 27:0.24770001 28:0.087370001 29:0.4677 30:0.076229997 #
0.10000000000000000555111512312578 1:14.2 2:20.530001 3:92.410004 4:618.40002 5:0.089309998 6:0.1108 7:0.050629999 8:0.030579999 9:0.1506 10:0.060090002 11:0.34779999 12:1.018 13:2.7490001 14:31.01 15:0.0041100001 16:0.032880001 17:0.028209999 18:0.0135 19:0.016100001 20:0.0027399999 21:16.450001 22:27.26 23:112.1 24:828.5 25:0.1153 26:0.34290001 27:0.25119999 28:0.1339 29:0.2534 30:0.07858 #
-0.10000000000000000555111512312578 1:12.83 2:22.33 3:85.260002 4:503.20001 5:0.1088 6:0.17990001 7:0.16949999 8:0.068609998 9:0.2123 10:0.07254 11:0.30610001 12:1.069 13:2.257 14:25.129999 15:0.0069800001 16:0.03858 17:0.046829998 18:0.01499 19:0.016799999 20:0.00562 21:15.2 22:30.15 23:105.3 24:706 25:0.1777 26:0.53430003 27:0.62819999 28:0.19769999 29:0.3407 30:0.1243 #
0.10000000000000000555111512312578 1:14.53 2:19.34 3:94.25 4:659.70001 5:0.08388 6:0.078000002 7:0.088169999 8:0.02925 9:0.1473 10:0.057459999 11:0.25350001 12:1.354 13:1.994 14:23.040001 15:0.0041499999 16:0.020479999 17:0.03379 18:0.0088499999 19:0.01394 20:0.00233 21:16.299999 22:28.389999 23:108.1 24:830.5 25:0.1089 26:0.2649 27:0.3779 28:0.095940001 29:0.2471 30:0.07463 #
0.10000000000000000555111512312578 1:13.66 2:19.129999 3:89.459999 4:575.29999 5:0.090570003 6:0.1147 7:0.09657 8:0.048119999 9:0.1848 10:0.061810002 11:0.2244 12:0.89499998 13:1.804 14:19.360001 15:0.00398 16:0.02809 17:0.03669 18:0.01274 19:0.01581 20:0.0039599999 21:15.14 22:25.5 23:101.4 24:708.79999 25:0.1147 26:0.31670001 27:0.366 28:0.1407 29:0.2744 30:0.08839 #
-0.056496723248102398429182358086109 1:15.61 2:19.379999 3:100 4:758.59998 5:0.078400001 6:0.056159999 7:0.042089999 8:0.02847 9:0.1547 10:0.05443 11:0.2298 12:0.99879998 13:1.534 14:22.18 15:0.0028299999 16:0.00911 17:0.01311 18:0.0051699998 19:0.01013 20:0.00135 21:17.91 22:31.67 23:115.9 24:988.59998 25:0.1084 26:0.1807 27:0.226 28:0.08568 29:0.2683 30:0.068290003 #
0.10000000000000000555111512312578 1:15.71 2:13.93 3:102 4:761.70001 5:0.094619997 6:0.094619997 7:0.071350001 8:0.059330001 9:0.1816 10:0.057229999 11:0.31169999 12:0.81550002 13:1.972 14:27.940001 15:0.0052200002 16:0.01515 17:0.01678 18:0.01268 19:0.016690001 20:0.00233 21:17.5 22:19.25 23:114.3 24:922.79999 25:0.1223 26:0.19490001 27:0.1709 28:0.1374 29:0.2723 30:0.070710003 #
-0.077309504553113583824597299098969 1:14.45 2:20.219999 3:94.489998 4:642.70001 5:0.098719999 6:0.1206 7:0.118 8:0.059799999 9:0.19499999 10:0.064659998 11:0.20919999 12:0.65090001 13:1.446 14:19.42 15:0.00404 16:0.015969999 17:0.02 18:0.0073000002 19:0.01522 20:0.0019799999 21:18.33 22:30.120001 23:117.9 24:1044 25:0.1552 26:0.40560001 27:0.49669999 28:0.1838 29:0.47530001 30:0.1013 #
0.076706839153985129087232053279877 1:14.59 2:22.68 3:96.389999 4:657.09998 5:0.084729999 6:0.133 7:0.1029 8:0.037360001 9:0.1454 10:0.061469998 11:0.2254 12:1.108 13:2.224 14:19.540001 15:0.0042400002 16:0.046390001 17:0.065779999 18:0.01606 19:0.016380001 20:0.0044100001 21:15.48 22:27.27 23:105.9 24:733.5 25:0.1026 26:0.31709999 27:0.3662 28:0.1105 29:0.22579999 30:0.08004 #
0.10000000000000000555111512312578 1:13.14 2:20.74 3:85.980003 4:536.90002 5:0.086750001 6:0.1089 7:0.1085 8:0.035100002 9:0.15620001 10:0.060199998 11:0.3152 12:0.78839999 13:2.312 14:27.4 15:0.0073000002 16:0.031789999 17:0.046149999 18:0.01254 19:0.01561 20:0.0032299999 21:14.8 22:25.459999 23:100.9 24:689.09998 25:0.13510001 26:0.3549 27:0.45039999 28:0.1181 29:0.2563 30:0.081739999 #
-0.10000000000000000555111512312578 1:13 2:21.82 3:87.5 4:519.79999 5:0.12729999 6:0.19320001 7:0.1859 8:0.093529999 9:0.235 10:0.073890001 11:0.30630001 12:1.002 13:2.4059999 14:24.32 15:0.0057299999 16:0.035020001 17:0.035530001 18:0.01226 19:0.021430001 20:0.0037499999 21:15.49 22:30.73 23:106.2 24:739.29999 25:0.17030001 26:0.54009998 27:0.53899997 28:0.206 29:0.43779999 30:0.1072 #
0.10000000000000000555111512312578 1:13.49 2:22.299999 3:86.910004 4:561 5:0.087520003 6:0.076980002 7:0.047510002 8:0.033840001 9:0.18089999 10:0.057179999 11:0.23379999 12:1.353 13:1.735 14:20.200001 15:0.0044499999 16:0.01382 17:0.020950001 18:0.01184 19:0.016410001 20:0.00196 21:15.15 22:31.82 23:99 24:698.79999 25:0.1162 26:0.17110001 27:0.2282 28:0.12819999 29:0.28709999 30:0.069169998 #
0.10000000000000000555111512312578 1:14.74 2:25.42 3:94.699997 4:668.59998 5:0.08275 6:0.072140001 7:0.041049998 8:0.030270001 9:0.184 10:0.0568 11:0.30309999 12:1.385 13:2.177 14:27.41 15:0.00477 16:0.01172 17:0.019470001 18:0.01269 19:0.0187 20:0.00263 21:16.51 22:32.290001 23:107.4 24:826.40002 25:0.106 26:0.1376 27:0.1611 28:0.1095 29:0.27219999 30:0.069559999 #
-0.10000000000000000555111512312578 1:18.809999 2:19.98 3:120.9 4:1102 5:0.089230001 6:0.058839999 7:0.080200002 8:0.058430001 9:0.155 10:0.049959999 11:0.3283 12:0.82800001 13:2.3629999 14:36.740002 15:0.0075699999 16:0.01114 17:0.02623 18:0.01463 19:0.019300001 20:0.00168 21:19.959999 22:24.299999 23:129 24:1236 25:0.1243 26:0.116 27:0.221 28:0.1294 29:0.25670001 30:0.05737 #
-0.10000000000000000555111512312578 1:15.37 2:22.76 3:100.2 4:728.20001 5:0.092 6:0.1036 7:0.1122 8:0.074830003 9:0.1717 10:0.060970001 11:0.31290001 12:0.84130001 13:2.075 14:29.440001 15:0.0098799998 16:0.02444 17:0.045310002 18:0.01763 19:0.02471 20:0.00214 21:16.43 22:25.84 23:107.5 24:830.90002 25:0.1257 26:0.1997 27:0.28459999 28:0.1476 29:0.25560001 30:0.068279997 #
0.10000000000000000555111512312578 1:14.87 2:20.209999 3:96.120003 4:680.90002 5:0.095870003 6:0.083449997 7:0.068240002 8:0.049509998 9:0.1487 10:0.05748 11:0.2323 12:1.636 13:1.596 14:21.84 15:0.0054100002 16:0.01371 17:0.02153 18:0.01183 19:0.01959 20:0.00181 21:16.01 22:28.48 23:103.9 24:783.59998 25:0.1216 26:0.1388 27:0.17 28:0.1017 29:0.2369 30:0.065990001 #
-0.00077451579863918595947325229644775 1:13.73 2:22.610001 3:93.599998 4:578.29999 5:0.1131 6:0.22930001 7:0.2128 8:0.080250002 9:0.2069 10:0.076820001 11:0.2121 12:1.169 13:2.0610001 14:19.209999 15:0.0064300001 16:0.059360001 17:0.055009998 18:0.016279999 19:0.019610001 20:0.0080899997 21:15.03 22:32.009998 23:108.8 24:697.70001 25:0.16509999 26:0.77249998 27:0.6943 28:0.2208 29:0.35960001 30:0.14309999 #
